digraph Tree {
node [shape=box] ;
0 [label="X[36] <= 0.5\ngini = 0.9\nsamples = 1257\nvalue = [125, 129, 124, 130, 124, 126, 127, 125, 122, 125]"] ;
1 [label="X[28] <= 5.0\ngini = 0.515\nsamples = 184\nvalue = [123, 0, 2, 1, 3, 20, 4, 0, 2, 29]"] ;
0 -> 1 [labeldistance=2.5, labelangle=45, headlabel="True"] ;
2 [label="X[13] <= 10.5\ngini = 0.156\nsamples = 134\nvalue = [123, 0, 1, 0, 3, 3, 3, 0, 0, 1]"] ;
1 -> 2 ;
3 [label="gini = 0.349\nsamples = 50\nvalue = [40, 0, 1, 0, 3, 3, 3, 0, 0, 0]"] ;
2 -> 3 ;
4 [label="gini = 0.024\nsamples = 84\nvalue = [83, 0, 0, 0, 0, 0, 0, 0, 0, 1]"] ;
2 -> 4 ;
5 [label="gini = 0.568\nsamples = 50\nvalue = [0, 0, 1, 1, 0, 17, 1, 0, 2, 28]"] ;
1 -> 5 ;
6 [label="X[43] <= 1.5\ngini = 0.888\nsamples = 1073\nvalue = [2, 129, 122, 129, 121, 106, 123, 125, 120, 96]"] ;
0 -> 6 [labeldistance=2.5, labelangle=-45, headlabel="False"] ;
7 [label="X[26] <= 4.5\ngini = 0.737\nsamples = 305\nvalue = [0, 18, 0, 119, 10, 56, 3, 5, 13, 81]"] ;
6 -> 7 ;
8 [label="X[19] <= 3.5\ngini = 0.27\nsamples = 127\nvalue = [0, 5, 0, 108, 0, 0, 0, 1, 6, 7]"] ;
7 -> 8 ;
9 [label="gini = 0.026\nsamples = 76\nvalue = [0, 0, 0, 75, 0, 0, 0, 1, 0, 0]"] ;
8 -> 9 ;
10 [label="gini = 0.539\nsamples = 51\nvalue = [0, 5, 0, 33, 0, 0, 0, 0, 6, 7]"] ;
8 -> 10 ;
11 [label="X[21] <= 3.5\ngini = 0.714\nsamples = 178\nvalue = [0, 13, 0, 11, 10, 56, 3, 4, 7, 74]"] ;
7 -> 11 ;
12 [label="gini = 0.422\nsamples = 69\nvalue = [0, 3, 0, 4, 3, 52, 3, 2, 1, 1]"] ;
11 -> 12 ;
13 [label="X[44] <= 3.5\ngini = 0.53\nsamples = 109\nvalue = [0, 10, 0, 7, 7, 4, 0, 2, 6, 73]"] ;
11 -> 13 ;
14 [label="gini = 0.219\nsamples = 58\nvalue = [0, 0, 0, 5, 0, 1, 0, 0, 1, 51]"] ;
13 -> 14 ;
15 [label="gini = 0.74\nsamples = 51\nvalue = [0, 10, 0, 2, 7, 3, 0, 2, 5, 22]"] ;
13 -> 15 ;
16 [label="X[46] <= 5.5\ngini = 0.86\nsamples = 768\nvalue = [2, 111, 122, 10, 111, 50, 120, 120, 107, 15]"] ;
6 -> 16 ;
17 [label="X[38] <= 0.5\ngini = 0.839\nsamples = 623\nvalue = [2, 110, 116, 3, 103, 49, 15, 120, 95, 10]"] ;
16 -> 17 ;
18 [label="X[19] <= 14.5\ngini = 0.795\nsamples = 424\nvalue = [0, 107, 116, 2, 14, 46, 15, 22, 94, 8]"] ;
17 -> 18 ;
19 [label="X[62] <= 2.5\ngini = 0.774\nsamples = 316\nvalue = [0, 21, 112, 2, 12, 43, 13, 22, 83, 8]"] ;
18 -> 19 ;
20 [label="X[21] <= 0.5\ngini = 0.795\nsamples = 202\nvalue = [0, 17, 21, 2, 12, 43, 6, 22, 71, 8]"] ;
19 -> 20 ;
21 [label="gini = 0.385\nsamples = 53\nvalue = [0, 0, 2, 0, 4, 41, 5, 0, 1, 0]"] ;
20 -> 21 ;
22 [label="X[50] <= 8.5\ngini = 0.722\nsamples = 149\nvalue = [0, 17, 19, 2, 8, 2, 1, 22, 70, 8]"] ;
20 -> 22 ;
23 [label="gini = 0.824\nsamples = 72\nvalue = [0, 17, 6, 2, 7, 2, 0, 18, 12, 8]"] ;
22 -> 23 ;
24 [label="gini = 0.401\nsamples = 77\nvalue = [0, 0, 13, 0, 1, 0, 1, 4, 58, 0]"] ;
22 -> 24 ;
25 [label="X[51] <= 13.5\ngini = 0.347\nsamples = 114\nvalue = [0, 4, 91, 0, 0, 0, 7, 0, 12, 0]"] ;
19 -> 25 ;
26 [label="gini = 0.608\nsamples = 50\nvalue = [0, 4, 28, 0, 0, 0, 6, 0, 12, 0]"] ;
25 -> 26 ;
27 [label="gini = 0.031\nsamples = 64\nvalue = [0, 0, 63, 0, 0, 0, 1, 0, 0, 0]"] ;
25 -> 27 ;
28 [label="X[26] <= 9.5\ngini = 0.353\nsamples = 108\nvalue = [0, 86, 4, 0, 2, 3, 2, 0, 11, 0]"] ;
18 -> 28 ;
29 [label="gini = 0.517\nsamples = 56\nvalue = [0, 37, 4, 0, 1, 3, 0, 0, 11, 0]"] ;
28 -> 29 ;
30 [label="gini = 0.11\nsamples = 52\nvalue = [0, 49, 0, 0, 1, 0, 2, 0, 0, 0]"] ;
28 -> 30 ;
31 [label="X[26] <= 10.5\ngini = 0.557\nsamples = 199\nvalue = [2, 3, 0, 1, 89, 3, 0, 98, 1, 2]"] ;
17 -> 31 ;
32 [label="X[21] <= 12.5\ngini = 0.097\nsamples = 100\nvalue = [0, 0, 0, 1, 2, 0, 0, 95, 1, 1]"] ;
31 -> 32 ;
33 [label="gini = 0.187\nsamples = 50\nvalue = [0, 0, 0, 1, 2, 0, 0, 45, 1, 1]"] ;
32 -> 33 ;
34 [label="gini = 0.0\nsamples = 50\nvalue = [0, 0, 0, 0, 0, 0, 0, 50, 0, 0]"] ;
32 -> 34 ;
35 [label="gini = 0.224\nsamples = 99\nvalue = [2, 3, 0, 0, 87, 3, 0, 3, 0, 1]"] ;
31 -> 35 ;
36 [label="X[28] <= 8.5\ngini = 0.46\nsamples = 145\nvalue = [0, 1, 6, 7, 8, 1, 105, 0, 12, 5]"] ;
16 -> 36 ;
37 [label="gini = 0.102\nsamples = 95\nvalue = [0, 0, 1, 1, 1, 1, 90, 0, 0, 1]"] ;
36 -> 37 ;
38 [label="gini = 0.802\nsamples = 50\nvalue = [0, 1, 5, 6, 7, 0, 15, 0, 12, 4]"] ;
36 -> 38 ;
}